digraph Tree {
node [shape=box, style="filled, rounded", color="black", fontname=helvetica] ;
edge [fontname=helvetica] ;
0 [label="NDVI <= 0.174\nentropy = 1.0\nsamples = 301056\nvalue = [238842.987, 237905.989]\nclass = crop", fillcolor="#fffffe"] ;
1 [label="nir <= 17676.5\nentropy = 0.999\nsamples = 7727\nvalue = [6255.615, 5923.12]\nclass = crop", fillcolor="#fef8f4"] ;
0 -> 1 [labeldistance=2.5, labelangle=45, headlabel="True"] ;
2 [label="swir2 <= 15316.0\nentropy = 1.0\nsamples = 7553\nvalue = [6081.574, 5806.222]\nclass = crop", fillcolor="#fef9f6"] ;
1 -> 2 ;
3 [label="swir1 <= 10876.5\nentropy = 0.999\nsamples = 7169\nvalue = [5798.074, 5485.904]\nclass = crop", fillcolor="#fef8f4"] ;
2 -> 3 ;
4 [label="entropy = 0.97\nsamples = 49\nvalue = [27.365, 41.42]\nclass = non-crop", fillcolor="#bcdef6"] ;
3 -> 4 ;
5 [label="swir2 <= 14484.5\nentropy = 0.999\nsamples = 7120\nvalue = [5770.709, 5444.484]\nclass = crop", fillcolor="#fef8f4"] ;
3 -> 5 ;
6 [label="entropy = 1.0\nsamples = 6772\nvalue = [5447.803, 5195.961]\nclass = crop", fillcolor="#fef9f6"] ;
5 -> 6 ;
7 [label="entropy = 0.988\nsamples = 348\nvalue = [322.906, 248.523]\nclass = crop", fillcolor="#f9e2d1"] ;
5 -> 7 ;
8 [label="EVI <= 0.351\nentropy = 0.997\nsamples = 384\nvalue = [283.5, 320.318]\nclass = non-crop", fillcolor="#e8f4fc"] ;
2 -> 8 ;
9 [label="NDVI <= 0.104\nentropy = 1.0\nsamples = 170\nvalue = [136.824, 138.989]\nclass = non-crop", fillcolor="#fcfdff"] ;
8 -> 9 ;
10 [label="entropy = 0.998\nsamples = 39\nvalue = [30.649, 27.614]\nclass = crop", fillcolor="#fcf3eb"] ;
9 -> 10 ;
11 [label="entropy = 1.0\nsamples = 131\nvalue = [106.176, 111.375]\nclass = non-crop", fillcolor="#f6fafe"] ;
9 -> 11 ;
12 [label="NDVI <= 0.133\nentropy = 0.992\nsamples = 214\nvalue = [146.676, 181.329]\nclass = non-crop", fillcolor="#d9ecfa"] ;
8 -> 12 ;
13 [label="entropy = 0.996\nsamples = 171\nvalue = [117.122, 136.227]\nclass = non-crop", fillcolor="#e3f1fb"] ;
12 -> 13 ;
14 [label="entropy = 0.968\nsamples = 43\nvalue = [29.554, 45.102]\nclass = non-crop", fillcolor="#bbddf6"] ;
12 -> 14 ;
15 [label="blue <= 10855.5\nentropy = 0.972\nsamples = 174\nvalue = [174.041, 116.898]\nclass = crop", fillcolor="#f6d6be"] ;
1 -> 15 ;
16 [label="nir <= 17948.5\nentropy = 0.951\nsamples = 91\nvalue = [90.851, 53.386]\nclass = crop", fillcolor="#f4cbad"] ;
15 -> 16 ;
17 [label="entropy = 0.949\nsamples = 40\nvalue = [42.689, 24.852]\nclass = crop", fillcolor="#f4caac"] ;
16 -> 17 ;
18 [label="entropy = 0.952\nsamples = 51\nvalue = [48.162, 28.534]\nclass = crop", fillcolor="#f4ccae"] ;
16 -> 18 ;
19 [label="NDVI <= 0.114\nentropy = 0.987\nsamples = 83\nvalue = [83.189, 63.511]\nclass = crop", fillcolor="#f9e1d0"] ;
15 -> 19 ;
20 [label="entropy = 0.991\nsamples = 43\nvalue = [42.689, 34.057]\nclass = crop", fillcolor="#fae6d7"] ;
19 -> 20 ;
21 [label="entropy = 0.982\nsamples = 40\nvalue = [40.5, 29.455]\nclass = crop", fillcolor="#f8ddc9"] ;
19 -> 21 ;
22 [label="nir <= 14308.0\nentropy = 1.0\nsamples = 293329\nvalue = [232587.372, 231982.869]\nclass = crop", fillcolor="#fffffe"] ;
0 -> 22 [labeldistance=2.5, labelangle=-45, headlabel="False"] ;
23 [label="red <= 9716.0\nentropy = 0.998\nsamples = 1900\nvalue = [1453.623, 1609.874]\nclass = non-crop", fillcolor="#ecf5fc"] ;
22 -> 23 ;
24 [label="EVI <= 0.672\nentropy = 0.999\nsamples = 1614\nvalue = [1254.407, 1350.306]\nclass = non-crop", fillcolor="#f1f8fd"] ;
23 -> 24 ;
25 [label="red <= 9587.5\nentropy = 1.0\nsamples = 1110\nvalue = [888.812, 920.454]\nclass = non-crop", fillcolor="#f8fcfe"] ;
24 -> 25 ;
26 [label="entropy = 0.998\nsamples = 154\nvalue = [141.203, 128.864]\nclass = crop", fillcolor="#fdf4ee"] ;
25 -> 26 ;
27 [label="entropy = 0.999\nsamples = 956\nvalue = [747.609, 791.59]\nclass = non-crop", fillcolor="#f4fafe"] ;
25 -> 27 ;
28 [label="red <= 9531.0\nentropy = 0.995\nsamples = 504\nvalue = [365.595, 429.852]\nclass = non-crop", fillcolor="#e1f0fb"] ;
24 -> 28 ;
29 [label="entropy = 0.996\nsamples = 68\nvalue = [54.73, 46.943]\nclass = crop", fillcolor="#fbede3"] ;
28 -> 29 ;
30 [label="entropy = 0.992\nsamples = 436\nvalue = [310.865, 382.909]\nclass = non-crop", fillcolor="#daedfa"] ;
28 -> 30 ;
31 [label="green <= 9806.5\nentropy = 0.987\nsamples = 286\nvalue = [199.216, 259.568]\nclass = non-crop", fillcolor="#d1e8f9"] ;
23 -> 31 ;
32 [label="blue <= 8792.5\nentropy = 0.974\nsamples = 208\nvalue = [133.541, 196.057]\nclass = non-crop", fillcolor="#c0e0f7"] ;
31 -> 32 ;
33 [label="entropy = 0.984\nsamples = 167\nvalue = [114.933, 155.557]\nclass = non-crop", fillcolor="#cbe5f8"] ;
32 -> 33 ;
34 [label="entropy = 0.899\nsamples = 41\nvalue = [18.608, 40.5]\nclass = non-crop", fillcolor="#94caf1"] ;
32 -> 34 ;
35 [label="nir <= 14285.0\nentropy = 1.0\nsamples = 78\nvalue = [65.676, 63.511]\nclass = crop", fillcolor="#fefbf8"] ;
31 -> 35 ;
36 [label="entropy = 0.996\nsamples = 41\nvalue = [37.216, 32.216]\nclass = crop", fillcolor="#fceee4"] ;
35 -> 36 ;
37 [label="entropy = 0.998\nsamples = 37\nvalue = [28.459, 31.295]\nclass = non-crop", fillcolor="#edf6fd"] ;
35 -> 37 ;
38 [label="swir1 <= 12589.5\nentropy = 1.0\nsamples = 291429\nvalue = [231133.749, 230372.996]\nclass = crop", fillcolor="#fffffe"] ;
22 -> 38 ;
39 [label="swir1 <= 10759.5\nentropy = 1.0\nsamples = 87496\nvalue = [70247.873, 69040.472]\nclass = crop", fillcolor="#fffdfc"] ;
38 -> 39 ;
40 [label="green <= 9553.0\nentropy = 0.977\nsamples = 168\nvalue = [159.811, 111.375]\nclass = crop", fillcolor="#f7d9c3"] ;
39 -> 40 ;
41 [label="entropy = 0.989\nsamples = 80\nvalue = [71.149, 55.227]\nclass = crop", fillcolor="#f9e3d3"] ;
40 -> 41 ;
42 [label="entropy = 0.963\nsamples = 88\nvalue = [88.662, 56.148]\nclass = crop", fillcolor="#f5d1b6"] ;
40 -> 42 ;
43 [label="swir2 <= 9432.5\nentropy = 1.0\nsamples = 87328\nvalue = [70088.062, 68929.097]\nclass = crop", fillcolor="#fffdfc"] ;
39 -> 43 ;
44 [label="entropy = 0.988\nsamples = 256\nvalue = [233.149, 179.488]\nclass = crop", fillcolor="#f9e2d1"] ;
43 -> 44 ;
45 [label="entropy = 1.0\nsamples = 87072\nvalue = [69854.913, 68749.608]\nclass = crop", fillcolor="#fffdfc"] ;
43 -> 45 ;
46 [label="NDWI <= -0.38\nentropy = 1.0\nsamples = 203933\nvalue = [160885.876, 161332.524]\nclass = non-crop", fillcolor="#feffff"] ;
38 -> 46 ;
47 [label="green <= 9575.0\nentropy = 0.992\nsamples = 813\nvalue = [563.717, 699.545]\nclass = non-crop", fillcolor="#d9ecfa"] ;
46 -> 47 ;
48 [label="entropy = 0.991\nsamples = 84\nvalue = [73.338, 58.909]\nclass = crop", fillcolor="#fae6d8"] ;
47 -> 48 ;
49 [label="entropy = 0.987\nsamples = 729\nvalue = [490.379, 640.636]\nclass = non-crop", fillcolor="#d1e8f9"] ;
47 -> 49 ;
50 [label="NDWI <= -0.374\nentropy = 1.0\nsamples = 203120\nvalue = [160322.159, 160632.979]\nclass = non-crop", fillcolor="#ffffff"] ;
46 -> 50 ;
51 [label="entropy = 0.994\nsamples = 927\nvalue = [830.798, 688.499]\nclass = crop", fillcolor="#fbe9dd"] ;
50 -> 51 ;
52 [label="entropy = 1.0\nsamples = 202193\nvalue = [159491.361, 159944.48]\nclass = non-crop", fillcolor="#feffff"] ;
50 -> 52 ;
}